0.89037772
-0.47266329
0.1889922
0.82230507
-1.01858903
-0.04974523
0.619329
0.00046078
-0.19204592
-0.18772349
0.078997
0.64348401
0.59723317
-0.00901155
-0.16221555
-0.9592347
0.49320299
0.35347645
0.62236848
-0.47693214
0.14732286
0.63168166
-0.17587554
-0.04875887
-0.12349716
1.06118114
-0.21020083
0.29563457
0.83719814
0.02814978
-0.62634871
0.5421949
1.0496903
-0.6291971
-0.73769016
-0.04406276
0.57807959
0.49817086
-0.2066909
-1.01070885
0.47778585
0.81790627
0.71834993
-0.37383249
-1.4992365
0.39745518
0.67794762
0.12177653
0.93602594
0.0205547
0.03546319
0.35726071
0.71775026
0.54029538
0.09360709
-0.70887659
0.32348318
0.46338652
0.54474529
0.08248237
-0.32424738
1.33511097
1.1952019
0.38516804
-0.24331263
0.95439503
0.71707629
-0.15792222
-0.18039022
0.23574128
0.31759779
0.77919761
1.04964451
0.68567945
0.21734171
-0.04182149
0.19093008
-0.02339531
0.21517963
0.21629103
0.38064856
0.66583801
0.26020354
0.70429971
-0.30927108
-0.00734355
-0.06370372
0.50489754
0.33937315
0.24169266
0.23367003
0.00319668
0.58624257
0.00665514
0.04687042
0.89976431
-0.15385678
-0.06970085
0.65247581
0.63024803
-0.06421591
0.20739447
0.78540935
0.88982847
-0.06073323
0.38894126
0.47252682
0.59915784
0.63017189
0.35715342
1.50560651
-0.15218264
-0.10275874
0.37061541
0.38608981
-0.09149018
0.08511251
0.51544569
0.57443097
0.41016674
0.069825
0.85083738
0.40115684
0.24790104
0.52101142
-0.07089059
0.10536352
0.31286018
-0.15121292
0.46263293
0.17605776
-0.35553145
0.49631208
0.29391171
0.36165064
-0.505143
-0.52818819
-0.0451653
-0.27422725
0.27479739
-0.26399341
0.04188404
0.21700927
0.24415002
0.09451341
-0.25999464
0.64939087
0.12689217
0.5304009
0.20754069
-0.28995521
0.61631929
0.6939968
0.30109461
0.42069622
0.81406518
-0.27997251
0.69296673
0.06977146
-0.08148336
0.74627336
0.37046536
0.30158807
-0.42073101
0.07502632
0.25606485
-0.18298871
-0.55945351
0.17578479
0.58254767
-0.29256604
0.9751556
-0.54871146
-0.00833777
0.21800262
-0.82989142
1.35179448
0.05750936
-0.38912954
0.05568617
1.1468731
-0.13063019
0.47339566
0.46653531
0.32942742
0.02028255
-0.07535662
-0.08042599
-0.40774652
0.08078042
0.26154973
1.7940356
0.26235421
-0.00773981
-0.04698426
1.43649381
0.02769027
0.19941308
-0.07002471
0.57545184
0.24155519
-1.33844733
-0.5226156
1.10100519
